svm_type c_svc
kernel_type linear
nr_class 2
total_sv 29
rho -0.6132259837499764
label 1 2
probA -0.4727809730981126
probB 0.17400523091492315
nr_sv 14 15
SV
100.0 1:1.1733333667507395E-4 2:6.82000070810318E-4 3:0.002486000070348382 4:0.005514666438102722 5:0.007656000088900328 6:0.009159333072602749 7:0.009680000133812428 8:0.009746000170707703 9:0.00947466678917408 10:0.00965800043195486 11:0.011308000423014164 12:0.012950667180120945 13:0.013794000260531902 14:0.015092000365257263 15:0.017167333513498306 16:0.020701998844742775 17:0.02190466783940792 18:0.01966799981892109 19:0.01648533344268799 20:0.014124001376330853 21:0.018824666738510132 22:0.02315133437514305 23:0.009408666752278805 24:0.00681266700848937 25:0.005756666883826256 26:0.0045540002174675465 27:0.009643333964049816 28:0.013977333903312683 29:0.008682667277753353 30:0.001070666708983481 31:4.693333467002958E-4 32:2.7866667369380593E-4 33:1.7600001592654735E-4 34:6.453333189710975E-4 35:0.0022440000902861357 36:0.005367999896407127 37:0.008800000883638859 38:0.01126400101929903 39:0.013265999965369701 40:0.014798667281866074 41:0.015715334564447403 42:0.017490001395344734 43:0.019616667181253433 44:0.020115334540605545 45:0.020540667697787285 46:0.021200666204094887 47:0.022153999656438828 48:0.019125334918498993 49:0.01666133478283882 50:0.022418001666665077 51:0.02065800130367279 52:0.005294667091220617 53:0.0033220001496374607 54:0.00295533356256783 55:0.004774000030010939 56:0.0045980000868439674 57:0.0035346667282283306 58:0.0073480005376040936 59:0.008550667203962803 60:0.015414666384458542 61:0.0012760000536218286 62:4.619999963324517E-4 63:1.3933333684690297E-4 64:7.333333633141592E-5 65:0.008315999992191792 66:0.0112786665558815 67:0.018149999901652336 68:0.022593999281525612 69:0.023591334000229836 70:0.023305334150791168 71:0.021648000925779343 72:0.01950666680932045 73:0.01773933321237564 74:0.015334000810980797 75:0.014989334158599377 76:0.01570800133049488 77:0.019858667626976967 78:0.025527333840727806 79:0.01564200036227703 80:0.00473733339458704 81:0.0023026668932288885 82:0.001312666805461049 83:0.0013493334408849478 84:0.0015766668366268277 85:0.0031606669072061777 86:0.004084666725248098 87:0.0037986666429787874 88:0.002882000058889389 89:0.0062406668439507484 90:0.009379333816468716 91:0.014109333977103233 92:0.0015326666180044413 93:2.5666668079793453E-4 94:8.800000796327367E-5 95:0.0 96:0.0 
100.0 1:0.00563933327794075 2:0.0037620002403855324 3:0.005844666622579098 4:0.007729333825409412 5:0.00857266690582037 6:0.0086240004748106 7:0.008323333226144314 8:0.00793466717004776 9:0.0075606671161949635 10:0.008822000585496426 11:0.010633333586156368 12:0.013999334536492825 13:0.01682266779243946 14:0.02046000026166439 15:0.025622667744755745 16:0.027910666540265083 17:0.029978668317198753 18:0.028072001412510872 19:0.022535335272550583 20:0.015730001032352448 21:0.011792001314461231 22:0.0083600003272295 23:0.006460666656494141 24:0.005536667071282864 25:0.004224000032991171 26:0.002977333264425397 27:0.0021926667541265488 28:0.0017160000279545784 29:0.0012833334039896727 30:4.986667190678418E-4 31:2.640000020619482E-4 32:1.1733333667507395E-4 33:0.0012026667827740312 34:0.0023980000987648964 35:0.003395333420485258 36:0.005624666810035706 37:0.007355333771556616 38:0.007956666871905327 39:0.007663333788514137 40:0.006849333643913269 41:0.005881333723664284 42:0.005287333391606808 43:0.004422000143676996 44:0.003923333249986172 45:0.00409933365881443 46:0.00409933365881443 47:0.004194667097181082 48:0.004605333786457777 49:0.005456000566482544 50:0.007120667025446892 51:0.009232667274773121 52:0.0109486673027277 53:0.014974666759371758 54:0.020078666508197784 55:0.025652000680565834 56:0.03125466778874397 57:0.03415866941213608 58:0.03065333515405655 59:0.022674666717648506 60:0.012760000303387642 61:0.007876000367105007 62:0.005360667128115892 63:0.0041506667621433735 64:0.008690000511705875 65:0.00646800035610795 66:0.0034393335226923227 67:0.0051113334484398365 68:0.00702533358708024 69:0.008741334080696106 70:0.009555334225296974 71:0.011198000982403755 72:0.012782000936567783 73:0.014483333565294743 74:0.017167333513498306 75:0.019294001162052155 76:0.02078266628086567 77:0.023422667756676674 78:0.02557133510708809 79:0.02730933576822281 80:0.02531466819345951 81:0.021618666127324104 82:0.017438668757677078 83:0.01322933379560709 84:0.010134667158126831 85:0.007524000480771065 86:0.006130666472017765 87:0.004473333712667227 88:0.00351266679354012 89:0.002427333500236273 90:0.0018406667513772845 91:0.0015106666833162308 92:9.386666934005916E-4 93:6.746667204424739E-4 94:4.619999963324517E-4 95:2.2000000171829015E-4 96:1.9800002337433398E-4 
100.0 1:0.0064240796491503716 2:0.014393358491361141 3:0.01919621415436268 4:0.016919277608394623 5:0.015254338271915913 6:0.015925254672765732 7:0.01655435748398304 8:0.01592145301401615 9:0.015493814833462238 10:0.014195695519447327 11:0.013549486175179482 12:0.013195971958339214 13:0.011814223602414131 14:0.01058452669531107 15:0.010559817776083946 16:0.010398265905678272 17:0.010295632295310497 18:0.010365954600274563 19:0.01048759464174509 20:0.009799571707844734 21:0.009187573567032814 22:0.008488147519528866 23:0.00754544185474515 24:0.006942946929484606 25:0.006245421711355448 26:0.005726553499698639 27:0.00497010862454772 28:0.0044987560249865055 29:0.0038981616962701082 30:0.0036833921913057566 31:0.0031854312401264906 32:0.004299191292375326 33:0.014433271251618862 34:0.021271685138344765 35:0.017286095768213272 36:0.015248634852468967 37:0.015490013174712658 38:0.016172334551811218 39:0.014712662436068058 40:0.013150356709957123 41:0.0114341014996171 42:0.010147384367883205 43:0.009286406449973583 44:0.008206856437027454 45:0.006716773845255375 46:0.0064240796491503716 47:0.006444986443966627 48:0.006636948324739933 49:0.007161518093198538 50:0.007851441390812397 51:0.00841022189706564 52:0.008729524910449982 53:0.009533485397696495 54:0.010084663517773151 55:0.01041727140545845 56:0.010322240181267262 57:0.009761559776961803 58:0.008946195244789124 59:0.007952174171805382 60:0.007334474008530378 61:0.006376564037054777 62:0.00577026791870594 63:0.0055916099809110165 64:0.01269420888274908 65:0.023236921057105064 66:0.026772065088152885 67:0.0268670953810215 68:0.024274658411741257 69:0.02358853630721569 70:0.02381090633571148 71:0.02373868227005005 72:0.02229991741478443 73:0.020984692499041557 74:0.01887691020965576 75:0.016577165573835373 76:0.0144503777846694 77:0.011378982104361057 78:0.008853064849972725 79:0.007313567213714123 80:0.005929919425398111 81:0.00526090245693922 82:0.004548172000795603 83:0.003863950725644827 84:0.003421107307076454 85:0.0030428848695009947 86:0.0024498929269611835 87:0.002079273108392954 88:0.0017827770207077265 89:0.001419759588316083 90:0.0011004561092704535 91:7.108300342224538E-4 92:6.291036261245608E-4 93:2.9459534562192857E-4 94:2.5468243984505534E-4 95:1.3494367885868996E-4 96:5.321722346707247E-5 
100.0 1:2.8694700449705124E-4 2:6.833146908320487E-4 3:8.743975195102394E-4 4:0.0010223898570984602 5:0.0013217637315392494 6:0.0017839774955064058 7:0.002495212247595191 8:0.0033767109271138906 9:0.004934584256261587 10:0.006623827386647463 11:0.007882973179221153 12:0.009100157767534256 13:0.010209696367383003 14:0.010624139569699764 15:0.010534247383475304 16:0.010483087040483952 17:0.010463397949934006 18:0.010941912420094013 19:0.01142639759927988 20:0.012925040908157825 21:0.015336009673774242 22:0.019755767658352852 23:0.0243219044059515 24:0.03077772818505764 25:0.03382650017738342 26:0.025556035339832306 27:0.020335795357823372 28:0.012392462231218815 29:0.007023100275546312 30:0.0035427785478532314 31:0.0028551064897328615 32:0.006282654125243425 33:3.981429908890277E-4 34:9.609012049622834E-4 35:0.0012686672853305936 36:0.0015170426340773702 37:0.002379335928708315 38:0.004474952816963196 39:0.006068008486181498 40:0.007550837472081184 41:0.009157288819551468 42:0.010322184301912785 43:0.011782255955040455 44:0.013398714363574982 45:0.015319709666073322 46:0.019525790587067604 47:0.026425106450915337 48:0.03305135294795036 49:0.026755306869745255 50:0.019940072670578957 51:0.016311759129166603 52:0.01335400901734829 53:0.011404125019907951 54:0.010144979692995548 55:0.009784762747585773 56:0.009395980276167393 57:0.0079036308452487 58:0.006953057833015919 59:0.007144463714212179 60:0.005827703047543764 61:0.0058049471117556095 62:0.004930549766868353 63:0.0039021887350827456 64:0.006842184811830521 65:0.0021829274483025074 66:0.00339962774887681 67:0.005049008410423994 68:0.00709443399682641 69:0.010395937599241734 70:0.015385393984615803 71:0.02084997668862343 72:0.02375139854848385 73:0.022506939247250557 74:0.02076185680925846 75:0.020934542641043663 76:0.019896820187568665 77:0.017489725723862648 78:0.01488767471164465 79:0.013159376569092274 80:0.01052617747336626 81:0.008771087974309921 82:0.007718842010945082 83:0.007188522256910801 84:0.00693562813103199 85:0.006567502859979868 86:0.005925342440605164 87:0.005696010310202837 88:0.005769119132310152 89:0.005300772842019796 90:0.004447839688509703 91:0.004328412935137749 92:0.004632951226085424 93:0.0044484855607151985 94:0.005986346863210201 95:0.007302301004528999 96:0.010709029622375965 
100.0 1:0.011679556220769882 2:0.005503667052835226 3:0.004694555886089802 4:0.004818000365048647 5:0.005095444619655609 6:0.005652777850627899 7:0.006096444558352232 8:0.006884777918457985 9:0.00842722225934267 10:0.012478888966143131 11:0.010644334368407726 12:0.01145955640822649 13:0.011748000048100948 14:0.013305111788213253 15:0.01603800058364868 16:0.01514944527298212 17:0.018453111872076988 18:0.01794588938355446 19:0.017556000500917435 20:0.023491112515330315 21:0.02421589009463787 22:0.020497890189290047 23:0.01594633422791958 24:0.010863112285733223 25:0.008828110992908478 26:0.006566999945789576 27:0.00496711116284132 28:0.003630000166594982 29:0.00254100002348423 30:0.0012649999698624015 31:0.0011183334281668067 32:0.0024383333511650562 33:0.013651000335812569 34:0.005518333520740271 35:0.005145555827766657 36:0.0052078887820243835 37:0.005556222051382065 38:0.006292000412940979 39:0.0068786670453846455 40:0.007681666873395443 41:0.00786622241139412 42:0.008531111292541027 43:0.012305334210395813 44:0.01183233316987753 45:0.011816444806754589 46:0.013165777549147606 47:0.014774222858250141 48:0.015844888985157013 49:0.015371888875961304 50:0.018791668117046356 51:0.017164889723062515 52:0.018195223063230515 53:0.023923778906464577 54:0.020834002643823624 55:0.017223555594682693 56:0.013624112121760845 57:0.009579778648912907 58:0.006954444572329521 59:0.005782333202660084 60:0.0034564444795250893 61:0.003039666684344411 62:0.002493333537131548 63:8.103333530016243E-4 64:6.868889322504401E-4 65:0.020934222266077995 66:0.007202555891126394 67:0.007162222173064947 68:0.00745066674426198 69:0.00809966679662466 70:0.0086704446002841 71:0.009737445041537285 72:0.013092445209622383 73:0.011693000793457031 74:0.011246888898313046 75:0.010551444254815578 76:0.010530667379498482 77:0.01072011049836874 78:0.012420222163200378 79:0.012019334360957146 80:0.011157667264342308 81:0.012085333466529846 82:0.014840222895145416 83:0.015915779396891594 84:0.013338111340999603 85:0.016768889501690865 86:0.022383779287338257 87:0.014550555497407913 88:0.012675667181611061 89:0.009704445488750935 90:0.006601222790777683 91:0.005580666940659285 92:0.004077333491295576 93:0.003003000281751156 94:0.0023931111209094524 95:0.0021865556482225657 96:0.0012063333997502923 
22.995972136231828 1:2.098083541568485E-6 2:1.2588501704158261E-5 3:2.9582978459075093E-4 4:0.0013129806611686945 5:0.010001564398407936 6:0.025316735729575157 7:0.03971755877137184 8:0.04366951063275337 9:0.03378375992178917 10:0.021212883293628693 11:0.011050187051296234 12:0.007877884432673454 13:0.007024803664535284 14:0.008026428520679474 15:0.00892356876283884 16:0.010683861561119556 17:0.01296363864094019 18:0.014673576690256596 19:0.014328232035040855 20:0.010498810559511185 21:0.007970619015395641 22:0.008013839833438396 23:0.007003403268754482 24:0.006725616287440062 25:0.006340828258544207 26:0.005763854831457138 27:0.0035742949694395065 28:0.0017699432792142034 29:9.634399320930243E-4 30:3.18069476634264E-4 31:1.1791229189839214E-4 32:6.168365507619455E-5 33:4.19616708313697E-6 34:3.692627069540322E-5 35:5.031204200349748E-4 36:8.816146873869002E-4 37:8.631516247987747E-4 38:0.001164016779512167 39:0.003401413094252348 40:0.006071434356272221 41:0.015751151368021965 42:0.03174988180398941 43:0.039705391973257065 44:0.04154667258262634 45:0.03163784369826317 46:0.019624214619398117 47:0.014876251108944416 48:0.011858787387609482 49:0.0133916474878788 50:0.014962692745029926 51:0.016019286587834358 52:0.013645516708493233 53:0.010711136274039745 54:0.008663826622068882 55:0.006886329967528582 56:0.006122627295553684 57:0.005338783375918865 58:0.005515861324965954 59:0.005414734128862619 60:0.0020884324330836535 61:9.819031693041325E-4 62:3.936004650313407E-4 63:1.1329651169944555E-4 64:7.427216041833162E-5 65:2.2071838611736894E-4 66:0.001199684222228825 67:0.003301963908597827 68:0.006888008210808039 69:0.0166592039167881 70:0.03179645910859108 71:0.04389862343668938 72:0.04302413761615753 73:0.03181198239326477 74:0.018181992694735527 75:0.012761383317410946 76:0.010153884999454021 77:0.007316857110708952 78:0.006247673183679581 79:0.006987457163631916 80:0.008259736001491547 81:0.009777489118278027 82:0.01093059591948986 83:0.011500435881316662 84:0.00953369215130806 85:0.006489792373031378 86:0.005671539809554815 87:0.005300598219037056 88:0.004957771394401789 89:0.004610328935086727 90:0.005023651290684938 91:0.004109306260943413 92:0.0017875671619549394 93:8.530808263458312E-4 94:4.5486452290788293E-4 95:2.0141602726653218E-4 96:8.811950829112902E-5 
100.0 1:2.7881042115041055E-5 2:4.460966738406569E-4 3:0.005263940896838903 4:0.012139405123889446 5:0.022828996181488037 6:0.02723420225083828 7:0.03098698891699314 8:0.03123234212398529 9:0.026447957381606102 10:0.02289033681154251 11:0.02040892280638218 12:0.016912641003727913 13:0.015395911410450935 14:0.014453532174229622 15:0.012574350461363792 16:0.012050187215209007 17:0.010488847270607948 18:0.00960780680179596 19:0.008559479378163815 20:0.0068866172805428505 21:0.005414498504251242 22:0.00439405208453536 23:0.003674721345305443 24:0.0032899631187319756 25:0.0024591078981757164 26:0.0015780669637024403 27:0.0012546468060463667 28:6.245353724807501E-4 29:2.8996283072046936E-4 30:1.3940520875621587E-4 31:3.903346078004688E-5 32:5.576208423008211E-6 33:0.0 34:3.401486901566386E-4 35:0.004996282979846001 36:0.008007435128092766 37:0.009775092825293541 38:0.010594796389341354 39:0.014068773947656155 40:0.014754647389054298 41:0.015596655197441578 42:0.020208178088068962 43:0.02460223250091076 44:0.028628254309296608 45:0.030763942748308182 46:0.030340149998664856 47:0.02311338298022747 48:0.017587361857295036 49:0.014475837349891663 50:0.012072490528225899 51:0.01021561399102211 52:0.007594795897603035 53:0.00681412685662508 54:0.005481412634253502 55:0.005754647310823202 56:0.006412639748305082 57:0.004249070771038532 58:0.0024646841920912266 59:8.754647569730878E-4 60:1.6728625632822514E-4 61:3.3457250538049266E-5 62:0.0 63:1.1152416846016422E-5 64:0.0 65:1.617100351722911E-4 66:0.005804832559078932 67:0.019048327580094337 68:0.02762453630566597 69:0.036195166409015656 70:0.041314128786325455 71:0.037070635706186295 72:0.0296263936907053 73:0.025193309411406517 74:0.02152973972260952 75:0.018094796687364578 76:0.01567472144961357 77:0.012931226752698421 78:0.010377324186265469 79:0.008291821926832199 80:0.006596654653549194 81:0.004895911086350679 82:0.003641264047473669 83:0.002319702645763755 84:0.0014944238355383277 85:0.0010204460704699159 86:4.0148699190467596E-4 87:1.8401487614028156E-4 88:2.0074349595233798E-4 89:1.7286246293224394E-4 90:1.0594796185614541E-4 91:2.2304833692032844E-5 92:0.0 93:0.0 94:0.0 95:0.0 96:5.576208423008211E-6 
100.0 1:3.0092214001342654E-4 2:0.0025121925864368677 3:0.005994774866849184 4:0.010177254676818848 5:0.010271926410496235 6:0.011282889172434807 7:0.01061342190951109 8:0.011299795471131802 9:0.011637909337878227 10:0.013555020093917847 11:0.013588832691311836 12:0.014336065389215946 13:0.01540450844913721 14:0.01460993941873312 15:0.015167828649282455 16:0.016973361372947693 17:0.019830431789159775 18:0.016476333141326904 19:0.015996210277080536 20:0.012415573932230473 21:0.01057622954249382 22:0.010758811607956886 23:0.009146003983914852 24:0.007972746156156063 25:0.00722889369353652 26:0.007178176194429398 27:0.006745389197021723 28:0.006518852896988392 29:0.006160451099276543 30:0.005967725533992052 31:0.005582274869084358 32:0.0037192623130977154 33:5.646516219712794E-4 34:0.0013423156924545765 35:0.0037294060457497835 36:0.008419057354331017 37:0.010515369474887848 38:0.012347951531410217 39:0.01325409859418869 40:0.016188934445381165 41:0.015786578878760338 42:0.016148360446095467 43:0.015502562746405602 44:0.016161885112524033 45:0.016527051106095314 46:0.016408709809184074 47:0.016385041177272797 48:0.018721414729952812 49:0.01793360710144043 50:0.014975103549659252 51:0.014467930421233177 52:0.011651434935629368 53:0.009359017014503479 54:0.009744467213749886 55:0.008253381587564945 56:0.006518852896988392 57:0.005775000434368849 58:0.005054815672338009 59:0.004939856939017773 60:0.00469641387462616 61:0.004726844374090433 62:0.005335451103746891 63:0.005284734070301056 64:0.003279713448137045 65:0.003458914114162326 66:0.00640727486461401 67:0.006772438529878855 68:0.009196721948683262 69:0.011587193235754967 70:0.013355533592402935 71:0.0152050219476223 72:0.0174027681350708 73:0.016824591904878616 74:0.017467008903622627 75:0.018329201266169548 76:0.018437398597598076 77:0.01774764433503151 78:0.016293751075863838 79:0.015806864947080612 80:0.01512049324810505 81:0.014332684688270092 82:0.013189856894314289 83:0.01287879142910242 84:0.010978586971759796 85:0.008300717920064926 86:0.007580533158034086 87:0.006180737633258104 88:0.005230635404586792 89:0.004070901777595282 90:0.0036753076128661633 91:0.0034048156812787056 92:0.0037294060457497835 93:0.004378586076200008 94:0.00488913943991065 95:0.004794467706233263 96:0.002972028683871031 
100.0 1:0.0 2:2.3753540517645888E-5 3:3.2859062775969505E-4 4:0.0015769711462780833 5:0.002626085886731744 6:0.004938096739351749 7:0.007452013436704874 8:0.009638658724725246 9:0.012008734978735447 10:0.014946254901587963 11:0.017955036833882332 12:0.021771440282464027 13:0.028480494394898415 14:0.03140481933951378 15:0.031226668506860733 16:0.028200730681419373 17:0.022598853334784508 18:0.019221892580389977 19:0.015427923761308193 20:0.012120903469622135 21:0.011366069316864014 22:0.010289241559803486 23:0.00879276916384697 24:0.006945271044969559 25:0.005287801846861839 26:0.0030061425641179085 27:0.001153366407379508 28:2.612889220472425E-4 29:2.9296032153069973E-4 30:1.9794618128798902E-4 31:2.2433897538576275E-4 32:2.348961279494688E-4 33:0.0 34:0.0 35:6.202313670655712E-5 36:8.90757713932544E-4 37:0.0018950046505779028 38:0.003259513294324279 39:0.005904074292629957 40:0.009712559171020985 41:0.013133068569004536 42:0.015906954184174538 43:0.018327174708247185 44:0.020760592073202133 45:0.021358391270041466 46:0.019951654598116875 47:0.017984068021178246 48:0.01645856350660324 49:0.01583569310605526 50:0.016601085662841797 51:0.017369115725159645 52:0.01746808923780918 53:0.018560752272605896 54:0.015608714893460274 55:0.011839820072054863 56:0.00993293896317482 57:0.010227219201624393 58:0.009377369657158852 59:0.007779284380376339 60:0.00649263383820653 61:0.004624022636562586 62:0.0019108402775600553 63:5.22577844094485E-4 64:2.4545323685742915E-4 65:7.653918146388605E-5 66:1.6099622007459402E-4 67:4.0776911191642284E-4 68:0.0014502855483442545 69:0.003613177454099059 70:0.006567853968590498 71:0.011193196289241314 72:0.016405778005719185 73:0.01696530543267727 74:0.01849213056266308 75:0.020038750022649765 76:0.021981261670589447 77:0.025769950821995735 78:0.02944251336157322 79:0.027952637523412704 80:0.020800182595849037 81:0.01566413976252079 82:0.013758578337728977 83:0.012310932390391827 84:0.010710207745432854 85:0.009853759780526161 86:0.008674001321196556 87:0.007554945535957813 88:0.006549378857016563 89:0.005898796021938324 90:0.005141321569681168 91:0.0043970444239676 92:0.0034785738680511713 93:0.0023740343749523163 94:0.001199553837068379 95:6.611401913687587E-4 96:4.5527616748586297E-4 
100.0 1:6.650627474300563E-4 2:9.743942646309733E-4 3:0.001407458446919918 4:0.0017683451296761632 5:0.0022632754407823086 6:0.0028458498418331146 7:0.003691356163471937 8:0.005583433900028467 9:0.009620210155844688 10:0.025638427585363388 11:0.043754942715168 12:0.02836569957435131 13:0.02982986718416214 14:0.03390273079276085 15:0.027710948139429092 16:0.0304588433355093 17:0.021843960508704185 18:0.014904623851180077 19:0.012383571825921535 20:0.00947585515677929 21:0.007011514622718096 22:0.005155525170266628 23:0.0033974910620599985 24:0.00240247487090528 25:0.0015208800323307514 26:9.125279611907899E-4 27:7.681732531636953E-4 28:6.135075236670673E-4 29:4.12442022934556E-4 30:2.2684309806209058E-4 31:2.577762643340975E-4 32:2.3199863790068775E-4 33:0.001082660281099379 34:0.001391991856507957 35:0.0016961677465587854 36:0.0021704761311411858 37:0.0026705621276050806 38:0.003696511499583721 39:0.005026637110859156 40:0.006325829774141312 41:0.01030589547008276 42:0.021611960604786873 43:0.0459718219935894 44:0.03441828489303589 45:0.03722289204597473 46:0.028649253770709038 47:0.031391993165016174 48:0.03015982173383236 49:0.018570201471447945 50:0.012275305576622486 51:0.009810964576900005 52:0.007047602906823158 53:0.0053514353930950165 54:0.003727444913238287 55:0.0028097613248974085 56:0.001752878655679524 57:0.0012940367450937629 58:9.795497171580791E-4 59:6.959959282539785E-4 60:5.207080394029617E-4 61:4.794638662133366E-4 62:3.505757194943726E-4 63:2.526207244955003E-4 64:2.887094160541892E-4 65:1.8044338503386825E-4 66:5.567967309616506E-4 67:0.0011548376642167568 68:0.0015672796871513128 69:0.002201409311965108 70:0.0032067366410046816 71:0.0088881254196167 72:0.023158619180321693 73:0.03241278603672981 74:0.027912011370062828 75:0.024493899196386337 76:0.024344388395547867 77:0.03416050970554352 78:0.020343702286481857 79:0.01944148540496826 80:0.018523801118135452 81:0.018498023971915245 82:0.014842757023870945 83:0.011759752407670021 84:0.0095686549320817 85:0.00817150715738535 86:0.006341295782476664 87:0.004856504499912262 88:0.003665578318759799 89:0.002634473377838731 90:0.0018508335342630744 91:0.0012991923140361905 92:9.692386956885457E-4 93:7.88795412518084E-4 94:5.619522416964173E-4 95:6.18663034401834E-4 96:0.0010259494883939624 
100.0 1:3.122580819763243E-4 2:6.174193695187569E-4 3:8.421505335718393E-4 4:0.0010976344347000122 5:0.001476129051297903 6:0.0018498925492167473 7:0.0021787097211927176 8:0.0028055915609002113 9:0.003957634791731834 10:0.004936989396810532 11:0.0060086022131145 12:0.008317419327795506 13:0.01198172103613615 14:0.017361076548695564 15:0.021888816729187965 16:0.028744300827383995 17:0.03285333514213562 18:0.03280129283666611 19:0.03257892653346062 20:0.02729419432580471 21:0.02158365771174431 22:0.015851829200983047 23:0.011421075090765953 24:0.00958537682890892 25:0.008953764103353024 26:0.006876774597913027 27:0.00448989262804389 28:0.0032479572109878063 29:0.002543010748922825 30:0.0022827957291156054 31:0.002164516132324934 32:0.001095268875360489 33:4.7075271140784025E-4 34:0.0010668818140402436 35:0.0013176343636587262 36:0.0018853764049708843 37:0.0022922581993043423 38:0.003023226046934724 39:0.003430107608437538 40:0.0038251616060733795 41:0.005353333428502083 42:0.005615914240479469 43:0.006280645728111267 44:0.008043011650443077 45:0.009987527504563332 46:0.012646451592445374 47:0.013755913823843002 48:0.017926452681422234 49:0.02333182841539383 50:0.031926024705171585 51:0.0434393584728241 52:0.041433338075876236 53:0.033861078321933746 54:0.021780000999569893 55:0.011579570360481739 56:0.006325591821223497 57:0.0057436563074588776 58:0.0037825806066393852 59:0.002867097035050392 60:0.002084085950627923 61:0.001618064590729773 62:0.0011070969048887491 63:0.001149677438661456 64:0.001050322549417615 65:9.91182867437601E-4 66:0.0013862366322427988 67:0.0018238710472360253 68:0.002483871066942811 69:0.0032763441558927298 70:0.003943440970033407 71:0.005050537642091513 72:0.0073948390781879425 73:0.009277849458158016 74:0.012476129457354546 75:0.017760861665010452 76:0.02285870909690857 77:0.03168473020195961 78:0.034639354795217514 79:0.03422301262617111 80:0.03191892430186272 81:0.02548925019800663 82:0.020098065957427025 83:0.016251614317297935 84:0.013039140030741692 85:0.008984516374766827 86:0.006256989203393459 87:0.004357419442385435 88:0.00329526886343956 89:0.0035294622648507357 90:0.002838709857314825 91:0.001495053875260055 92:9.036559495143592E-4 93:7.286021718755364E-4 94:7.096774643287063E-4 95:7.901075878180563E-4 96:4.2580646550050005E-5 
100.0 1:1.9901999621652067E-5 2:2.122879959642887E-4 3:0.0014113833894953132 4:0.006305616814643145 5:0.031186431646347046 6:0.045943763107061386 7:0.049703583121299744 8:0.032650887966156006 9:0.02098168060183525 10:0.016308028250932693 11:0.013231512159109116 12:0.011549793183803558 13:0.010058801621198654 14:0.00927930697798729 15:0.009271014481782913 16:0.008914437144994736 17:0.008687222376465797 18:0.00888126716017723 19:0.008911119773983955 20:0.007688805460929871 21:0.00637527322396636 22:0.005333735607564449 23:0.0044447798281908035 24:0.0038410855922847986 25:0.0029471542220562696 26:0.0022323408629745245 27:0.001560648437589407 28:0.001295288442634046 29:6.43497915007174E-4 30:1.1443649418652058E-4 31:1.3267999747768044E-5 32:1.6584999684710056E-6 33:1.6584999684710056E-5 34:2.5872598052956164E-4 35:0.0020830759312957525 36:0.014933133497834206 37:0.038596607744693756 38:0.04353396221995354 39:0.04510953649878502 40:0.02622254192829132 41:0.01986219361424446 42:0.016359442844986916 43:0.01326468214392662 44:0.011367358267307281 45:0.010022314265370369 46:0.009028873406350613 47:0.008484885096549988 48:0.008010555058717728 49:0.008040407672524452 50:0.008226159028708935 51:0.008314060047268867 52:0.008333961479365826 53:0.006262495648115873 54:0.005279005505144596 55:0.004575801081955433 56:0.0038079156074672937 57:0.003035054774954915 58:0.002416434232145548 59:0.0017961554694920778 60:0.0014926498988643289 61:0.0010116848861798644 62:2.421409881208092E-4 63:1.1609498869802337E-5 64:0.0 65:2.156049777113367E-5 66:4.0135698509402573E-4 67:0.003389973659068346 68:0.023683376610279083 69:0.038628119975328445 70:0.03830637410283089 71:0.03517844155430794 72:0.020361403003335 73:0.016938259825110435 74:0.016437392681837082 75:0.01476064883172512 76:0.012573087587952614 77:0.010476743802428246 78:0.009398719295859337 79:0.009297549724578857 80:0.009735394269227982 81:0.009682321920990944 82:0.008829853497445583 83:0.00791933760046959 84:0.006774972192943096 85:0.005705239716917276 86:0.005018620751798153 87:0.004366829991340637 88:0.003902450203895569 89:0.003738258732482791 90:0.003491142066195607 91:0.0031776856631040573 92:0.0027000377885997295 93:0.0020598568953573704 94:0.0017364493105560541 95:0.0010332454694435 96:2.753109729383141E-4 
100.0 1:4.575600032694638E-4 2:6.262196693569422E-4 3:0.0014792019501328468 4:0.0025177905336022377 5:0.0032682856544852257 6:0.0040389555506408215 7:0.004757978487759829 8:0.0058070579543709755 9:0.006238794419914484 10:0.006462328601628542 11:0.006783508230000734 12:0.00686259288340807 13:0.007278996519744396 14:0.007573545910418034 15:0.008150539360940456 16:0.008650870062410831 17:0.00928838737308979 18:0.010716748423874378 19:0.012818942777812481 20:0.01601298525929451 21:0.021340694278478622 22:0.02835984341800213 23:0.035014234483242035 24:0.03812757879495621 25:0.03235037997364998 26:0.019956717267632484 27:0.010916881263256073 28:0.00644376827403903 29:0.003629007376730442 30:0.0020440907683223486 31:0.0010749028297141194 32:9.506272617727518E-4 33:0.0033965962938964367 34:0.0038468933198601007 35:0.004821730311959982 36:0.005608539562672377 37:0.006401805207133293 38:0.0067915781401097775 39:0.006860171910375357 40:0.006884381640702486 41:0.007034480571746826 42:0.007322574034333229 43:0.007714767940342426 44:0.008388600312173367 45:0.00987990666180849 46:0.011916734278202057 47:0.015786223113536835 48:0.020681388676166534 49:0.02652556821703911 50:0.033240482211112976 51:0.03355924040079117 52:0.028730247169733047 53:0.020566796883940697 54:0.014942925423383713 55:0.011710953898727894 56:0.009340840391814709 57:0.006931186653673649 58:0.004670017398893833 59:0.0030399092938750982 60:0.0017689091619104147 61:9.377155220136046E-4 62:3.6798472865484655E-4 63:1.7672953254077584E-4 64:1.5413395885843784E-4 65:0.017702003940939903 66:0.008076297119259834 67:0.007985915057361126 68:0.0080722626298666 69:0.008401512168347836 70:0.010389112867414951 71:0.01336769200861454 72:0.017792385071516037 73:0.02132132649421692 74:0.025213411077857018 75:0.02739630453288555 76:0.026592547073960304 77:0.02258264273405075 78:0.017755264416337013 79:0.014133520424365997 80:0.012985988520085812 81:0.0122847193852067 82:0.011769862845540047 83:0.010774852707982063 84:0.0093464907258749 85:0.0077438196167349815 86:0.005971682723611593 87:0.004283471964299679 88:0.003023769473657012 89:0.0022910279221832752 90:0.0013000513426959515 91:8.344215457327664E-4 92:3.2924950937740505E-4 93:1.6946667165029794E-4 94:8.392634481424466E-5 95:2.3402537408401258E-5 96:1.61396826570126E-6 
100.0 1:0.0 2:2.3319578758673742E-5 3:1.492453011451289E-4 4:3.124823560938239E-4 5:4.663915606215596E-4 6:3.591215063352138E-4 7:4.104245745111257E-4 8:8.208491490222514E-4 9:0.001982164103537798 10:0.00436542509123683 11:0.00839504785835743 12:0.011771722696721554 13:0.014691334217786789 14:0.017158545553684235 15:0.019872944802045822 16:0.02078707329928875 17:0.020250720903277397 18:0.02015744335949421 19:0.018609022721648216 20:0.01911272667348385 21:0.019154701381921768 22:0.017545649781823158 23:0.015698740258812904 24:0.013791198842227459 25:0.011781050823628902 26:0.009826869703829288 27:0.008670219220221043 28:0.009784894995391369 29:0.011291339993476868 30:0.013278168626129627 31:0.015041127800941467 32:0.004440047778189182 33:1.3991746527608484E-5 34:1.1193397222086787E-4 35:4.943750682286918E-4 36:7.695460808463395E-4 37:9.281192324124277E-4 38:0.0013851829571649432 39:0.001790943555533886 40:0.002756374189630151 41:0.004206852056086063 42:0.008068574592471123 43:0.012872406281530857 44:0.017662247642874718 45:0.023226298391819 46:0.026565661653876305 47:0.0271579809486866 48:0.027554413303732872 49:0.025530274957418442 50:0.020311353728175163 51:0.016127821058034897 52:0.01138928160071373 53:0.0097382552921772 54:0.008824128657579422 55:0.006967890076339245 56:0.006021115463227034 57:0.005839222576469183 58:0.005783255212008953 59:0.0068373000249266624 60:0.008129204623401165 61:0.010960201732814312 62:0.012900390662252903 63:0.01464003138244152 64:0.004435383714735508 65:2.331957803107798E-4 66:8.581604924984276E-4 67:0.0016183786792680621 68:0.0028216689825057983 69:0.0054008145816624165 70:0.010638391599059105 71:0.017918763682246208 72:0.024625474587082863 73:0.03023616410791874 74:0.031980469822883606 75:0.027703657746315002 76:0.023114364594221115 77:0.01662219502031803 78:0.01247597485780716 79:0.009318503551185131 80:0.007742099929600954 81:0.007075160276144743 82:0.006007123272866011 83:0.005340183153748512 84:0.005013709422200918 85:0.005032365210354328 86:0.0043421052396297455 87:0.004267482552677393 88:0.004803833086043596 89:0.004691899288445711 90:0.005433461628854275 91:0.006963225547224283 92:0.007928656414151192 93:0.010862259194254875 94:0.011925632134079933 95:0.012513285502791405 96:0.0044913506135344505 
-100.0 1:0.0020129999611526728 2:6.343333516269922E-4 3:5.866666906513274E-4 4:5.64666697755456E-4 5:7.296666735783219E-4 6:9.753333288244903E-4 7:9.826667373999953E-4 8:0.001078000059351325 9:0.001364000141620636 10:0.0016133333556354046 11:0.0018920000875368714 12:0.002262333407998085 13:0.002222000155597925 14:0.0024640001356601715 15:0.005063666962087154 16:0.024724332615733147 17:0.058531004935503006 18:0.02190466783940792 19:0.009302332997322083 20:0.010662667453289032 21:0.013500667177140713 22:0.016423000022768974 23:0.02292766608297825 24:0.028050001710653305 25:0.05365433543920517 26:0.01367300096899271 27:0.010838666930794716 28:0.006046333350241184 29:0.0025043333880603313 30:0.0024126667995005846 31:0.0028893332928419113 32:0.007509333547204733 33:0.0017050000606104732 34:4.986667190678418E-4 35:4.803333431482315E-4 36:5.940000410191715E-4 37:8.140000863932073E-4 38:9.863333543762565E-4 39:0.001250333385542035 40:0.0015730001032352448 41:0.0020020001102238894 42:0.002867333358153701 43:0.004194667097181082 44:0.008979666978120804 45:0.02364266850054264 46:0.027925333008170128 47:0.03027566894888878 48:0.03048100136220455 49:0.02576933428645134 50:0.02152700163424015 51:0.026689669117331505 52:0.03160666674375534 53:0.03187066689133644 54:0.015752000734210014 55:0.0099183339625597 56:0.0069226669147610664 57:0.0034026666544377804 58:0.001932333456352353 59:0.0022843333426862955 60:0.002665666863322258 61:0.0031680003739893436 62:0.004136000294238329 63:0.003336666850373149 64:7.479999912902713E-4 65:0.002900333609431982 66:0.0012760000536218286 67:0.0019030000548809767 68:0.004803333431482315 69:0.020529666915535927 70:0.02003466710448265 71:0.03170933201909065 72:0.049775004386901855 73:0.048550333827733994 74:0.02261233516037464 75:0.023554667830467224 76:0.025252334773540497 77:0.021655336022377014 78:0.010857000946998596 79:0.007799000013619661 80:0.003116666804999113 81:0.0025776666589081287 82:0.0024603335186839104 83:0.0024053335655480623 84:0.00198366679251194 85:0.0017673333641141653 86:0.001972666708752513 87:0.0018406667513772845 88:0.001807666732929647 89:0.002544666873291135 90:0.0028526668902486563 91:0.003850000211969018 92:0.0038353335112333298 93:0.0021120000164955854 94:0.0010926667600870132 95:4.290000069886446E-4 96:1.3933333684690297E-4 
-100.0 1:0.005558615550398827 2:0.003942280542105436 3:0.003068754216656089 4:0.003207771573215723 5:0.0037783647421747446 6:0.004502499476075172 7:0.005616712849587202 8:0.007116854190826416 9:0.008413657546043396 10:0.009816278703510761 11:0.010932566598057747 12:0.012829010374844074 13:0.015071961097419262 14:0.01674431934952736 15:0.017159296199679375 16:0.018132416531443596 17:0.020122230052947998 18:0.02121361903846264 19:0.01791040413081646 20:0.01584796793758869 21:0.014109214767813683 22:0.011980383656919003 23:0.010378573089838028 24:0.009256060235202312 25:0.008264265023171902 26:0.007255871314555407 27:0.0063449968583881855 28:0.005820050835609436 29:0.0050834668800234795 30:0.0049963220953941345 31:0.005483920220285654 32:0.02004130929708481 33:0.006928039249032736 34:0.004396680276840925 35:0.004110346548259258 36:0.00504196947440505 37:0.006029614247381687 38:0.00754635501652956 39:0.00956936739385128 40:0.011488635092973709 41:0.01203225553035736 42:0.013024049811065197 43:0.014561540447175503 44:0.014978592284023762 45:0.016126003116369247 46:0.01673809252679348 47:0.01781703345477581 48:0.018043195828795433 49:0.017117798328399658 50:0.01571725122630596 51:0.014405922964215279 52:0.01234971359372139 53:0.01144298817962408 54:0.010305951349437237 55:0.009635764174163342 56:0.009025747887790203 57:0.008430255576968193 58:0.008156371302902699 59:0.00736998999491334 60:0.0059777419082820415 61:0.004925775807350874 62:0.004537772387266159 63:0.0034712818451225758 64:0.008697916753590107 65:0.01359671913087368 66:0.013073847629129887 67:0.01410713978111744 68:0.01588324084877968 69:0.01698085479438305 70:0.01683768816292286 71:0.016789965331554413 72:0.017065925523638725 73:0.01825275830924511 74:0.018310856074094772 75:0.017688391730189323 76:0.01659492589533329 77:0.01473997998982668 78:0.013700462877750397 79:0.01258624903857708 80:0.011256248690187931 81:0.010731303133070469 82:0.009336980991065502 83:0.008123173378407955 84:0.007210223935544491 85:0.0059984908439219 86:0.00507931737229228 87:0.00393813056871295 88:0.0032762426417320967 89:0.0029587852768599987 90:0.003122701309621334 91:0.0031724984291940928 92:0.0028591910377144814 93:0.002952560782432556 94:0.0028156184125691652 95:0.0023674434050917625 96:0.008592097088694572 
-100.0 1:0.001311062602326274 2:0.0024090001825243235 3:0.003236062591895461 4:0.003209937596693635 5:0.003548875218257308 6:0.003657500259578228 7:0.004126375075429678 8:0.004562250338494778 9:0.00486612506210804 10:0.005757125094532967 11:0.006857125088572502 12:0.0074800001457333565 13:0.007664250209927559 14:0.0075810630805790424 15:0.00756456283852458 16:0.009301187470555305 17:0.016756439581513405 18:0.017125625163316727 19:0.02466612681746483 20:0.0260913148522377 21:0.027484187856316566 22:0.02447706274688244 23:0.01920393854379654 24:0.014818374998867512 25:0.013794687576591969 26:0.01211718749254942 27:0.010676187463104725 28:0.009122437797486782 29:0.007266875356435776 30:0.0057069375179708 31:0.005506874993443489 32:0.012053250335156918 33:0.00101131247356534 34:0.0014994376106187701 35:0.003812875133007765 36:0.005095750093460083 37:0.006076125428080559 38:0.007673187647014856 39:0.007541874889284372 40:0.0071671875193715096 41:0.007493062876164913 42:0.008390937931835651 43:0.008478937670588493 44:0.00863568764179945 45:0.00909150019288063 46:0.010893438011407852 47:0.012232688255608082 48:0.015698375180363655 49:0.02081131376326084 50:0.03073125146329403 51:0.025948313996195793 52:0.03282950073480606 53:0.025639625266194344 54:0.020391250029206276 55:0.01191368792206049 56:0.010582688264548779 57:0.007165125571191311 58:0.004895687568932772 59:0.0038582501001656055 60:0.0030408126767724752 61:0.0022343751043081284 62:0.002213750034570694 63:0.0023313125129789114 64:0.004620687570422888 65:0.009519125334918499 66:0.008925125002861023 67:0.01126125082373619 68:0.012933250516653061 69:0.014792938716709614 70:0.014439563266932964 71:0.01248981337994337 72:0.011330687440931797 73:0.011147812940180302 74:0.011638687923550606 75:0.0125943124294281 76:0.013874437659978867 77:0.01309412531554699 78:0.01275862567126751 79:0.014043563045561314 80:0.015224000439047813 81:0.018663562834262848 82:0.022448251023888588 83:0.024087252095341682 84:0.022800937294960022 85:0.013616625219583511 86:0.0056856251321733 87:0.004364250227808952 88:0.0034615625627338886 89:0.0031295001972466707 90:0.002500437665730715 91:0.001718750107102096 92:0.0014306874945759773 93:0.001309687620960176 94:0.001377750071696937 95:0.0013468125835061073 96:0.0019910000264644623 
-100.0 1:0.0070833987556397915 2:0.003485911525785923 3:0.00305751315318048 4:0.003220221260562539 5:0.0033398179803043604 6:0.006899206433445215 7:0.00955940131098032 8:0.008380338549613953 9:0.013558216392993927 10:0.022758973762392998 11:0.04127076640725136 12:0.04231934994459152 13:0.05355854332447052 14:0.035417281091213226 15:0.029455652460455894 16:0.012962383218109608 17:0.014720521867275238 18:0.008110924623906612 19:0.0016611720202490687 20:0.0013966277474537492 21:0.0011605860199779272 22:9.659375064074993E-4 23:8.274349384009838E-4 24:7.813151460140944E-4 25:7.460807682946324E-4 26:6.483984761871397E-4 27:4.8654951388016343E-4 28:4.0734378853812814E-4 29:3.6652342532761395E-4 30:3.355859371367842E-4 31:3.477604186628014E-4 32:7.102734525687993E-4 33:0.0029022525995969772 34:0.0013012370327487588 35:0.0012751693138852715 36:0.001474830904044211 37:0.0017525522271171212 38:0.0019655339419841766 39:0.004980508238077164 40:0.009076002985239029 41:0.008726666681468487 42:0.011553009040653706 43:0.015724558383226395 44:0.0198398195207119 45:0.024238530546426773 46:0.027593815699219704 47:0.03476444259285927 48:0.03662799671292305 49:0.02865256555378437 50:0.06651978194713593 51:0.017761848866939545 52:0.004502409137785435 53:0.0013810156378895044 54:0.001164023531600833 55:0.001026380225084722 56:9.633594308979809E-4 57:8.368880371563137E-4 58:6.472526583820581E-4 59:5.129036726430058E-4 60:4.6291667968034744E-4 61:4.1794273420237005E-4 62:3.9631512481719255E-4 63:4.2696617310866714E-4 64:5.305208615027368E-4 65:0.03473421931266785 66:0.021808505058288574 67:0.024784231558442116 68:0.024935195222496986 69:0.009929219260811806 70:0.009093333967030048 71:0.00834352895617485 72:0.00851826835423708 73:0.01145990937948227 74:0.01770785264670849 75:0.05937908962368965 76:0.05694877728819847 77:0.003444804809987545 78:0.002497057430446148 79:0.0024331773165613413 80:0.0022585808765143156 81:0.0020178125705569983 82:0.001920989598147571 83:0.0018221614882349968 84:0.0018224481027573347 85:0.0019025130895897746 86:0.001966250129044056 87:0.0021798047237098217 88:0.002387200715020299 89:0.0024443489965051413 90:0.0023248959332704544 91:0.002178802154958248 92:0.0020852736197412014 93:0.0018141407053917646 94:0.0016561589436605573 95:0.0014340104535222054 96:0.0017674480332061648 
-100.0 1:1.0503472003620118E-4 2:0.0010159722296521068 3:0.0026831598952412605 4:0.004751388914883137 5:0.005725347436964512 6:0.00600607693195343 7:0.006025174167007208 8:0.004621528089046478 9:0.004082986619323492 10:0.0038366320077329874 11:0.0038824654184281826 12:0.016505729407072067 13:0.024444445967674255 14:0.029333334416151047 15:0.040413543581962585 16:0.040073614567518234 17:0.025521529838442802 18:0.016931599006056786 19:0.011928125284612179 20:0.011280729435384274 21:0.008924132212996483 22:0.0070258681662380695 23:0.007151910103857517 24:0.007829861715435982 25:0.00819270871579647 26:0.008081944659352303 27:0.007778299041092396 28:0.0052651045843958855 29:0.004174652975052595 30:0.003725868184119463 31:0.0016977430786937475 32:9.835069067776203E-4 33:1.909722232085187E-5 34:0.0010465278755873442 35:0.002532291691750288 36:0.004852604120969772 37:0.006840625312179327 38:0.00691319489851594 39:0.01045954879373312 40:0.008513541892170906 41:0.007052604574710131 42:0.0105473967269063 43:0.020107466727495193 44:0.022863194346427917 45:0.023529689759016037 46:0.035135071724653244 47:0.0428694486618042 48:0.03299809247255325 49:0.012369271367788315 50:0.011630209162831306 51:0.009968750178813934 52:0.008985243737697601 53:0.005857117939740419 54:0.006273437757045031 55:0.007172917015850544 56:0.007098437752574682 57:0.007107986137270927 58:0.007298958953469992 59:0.004839236382395029 60:0.0017722223419696093 61:9.052083478309214E-4 62:7.104167016223073E-4 63:7.428819662891328E-4 64:9.87326493486762E-4 65:0.02250034734606743 66:0.005282292142510414 67:0.004890798591077328 68:0.005393056198954582 69:0.0059888893738389015 70:0.00610347231850028 71:0.006859723012894392 72:0.007237847428768873 73:0.009074999950826168 74:0.018149999901652336 75:0.02507847361266613 76:0.018562499433755875 77:0.0334697924554348 78:0.0371173620223999 79:0.029780209064483643 80:0.020899999886751175 81:0.012319618836045265 82:0.010677257552742958 83:0.008288195356726646 84:0.005920139141380787 85:0.005830382462590933 86:0.0062467013485729694 87:0.006282986141741276 88:0.005440799053758383 89:0.0052135419100522995 90:0.003118576481938362 91:5.767361144535244E-4 92:5.442708497866988E-4 93:5.423611728474498E-4 94:6.569444667547941E-4 95:7.123263785615563E-4 96:0.0012394097866490483 
-18.604797058907796 1:0.16213364899158478 2:0.022633705288171768 3:0.00799682829529047 4:0.00792910996824503 5:0.008897797204554081 6:0.009887109510600567 7:0.01078326627612114 8:0.010341375134885311 9:0.010028734803199768 10:0.010163141414523125 11:0.009885391220450401 12:0.00920407846570015 13:0.00872317235916853 14:0.00788889080286026 15:0.006871734745800495 16:0.005640593823045492 17:0.004416672047227621 18:0.003207187633961439 19:0.0023455782793462276 20:0.0016477657482028008 21:0.0012797813396900892 22:0.0011517343809828162 23:9.802031563594937E-4 24:8.112500072456896E-4 25:6.608593976125121E-4 26:5.857500364072621E-4 27:5.976094398647547E-4 28:5.933125503361225E-4 29:4.917343612760305E-4 30:4.152500187046826E-4 31:4.193750210106373E-4 32:0.0013873750576749444 33:0.011947890743613243 34:0.015508453361690044 35:0.013646876439452171 36:0.015439875423908234 37:0.014659907668828964 38:0.017295094206929207 39:0.01896468736231327 40:0.018256735056638718 41:0.01842912659049034 42:0.01708953268826008 43:0.016414405778050423 44:0.016867125406861305 45:0.016041267663240433 46:0.01620454713702202 47:0.017385156825184822 48:0.01769968867301941 49:0.02248537540435791 50:0.020364094525575638 51:0.01120057888329029 52:0.0038888438139110804 53:0.001564578153192997 54:0.001087453099898994 55:8.791406289674342E-4 56:8.007657015696168E-4 57:7.724062888883054E-4 58:7.887344108894467E-4 59:7.65874981880188E-4 60:7.003906648606062E-4 61:6.127344095148146E-4 62:4.882969078607857E-4 63:4.312343953642994E-4 64:0.001319140661507845 65:0.015815595164895058 66:0.03684759512543678 67:0.04222453385591507 68:0.03263648599386215 69:0.027826562523841858 70:0.02621489018201828 71:0.024832673370838165 72:0.021774500608444214 73:0.018071796745061874 74:0.016492266207933426 75:0.008290219120681286 76:0.006470406893640757 77:0.005199219100177288 78:0.0044555156491696835 79:0.0039092968218028545 80:0.003177796956151724 81:0.002465890720486641 82:0.0021176720038056374 83:0.0017820000648498535 84:0.001693312544375658 85:0.001651031314395368 86:0.0014437501085922122 87:0.0014466719003394246 88:0.0015666406834498048 89:0.002032593823969364 90:0.002604937646538019 91:0.002950406400486827 92:0.0027262812945991755 93:0.002334406366571784 94:0.0020810626447200775 95:0.002129531232640147 96:0.00473446911200881 
-35.83928307175459 1:1.0322571142751258E-5 2:2.9557800735346973E-4 3:0.0018890304490923882 4:0.0029467165004462004 5:0.00367408012971282 6:0.0036000597756356 7:0.003723426954820752 8:0.004536896012723446 9:0.005586524959653616 10:0.005342056509107351 11:0.005780640058219433 12:0.006536705419421196 13:0.007220008876174688 14:0.00743325799703598 15:0.007086822763085365 16:0.006907058879733086 17:0.023621315136551857 18:0.0778382271528244 19:0.08123007416725159 20:0.040340859442949295 21:0.004184921272099018 22:0.0026151351630687714 23:0.0021405487786978483 24:0.002034050179645419 25:0.0018152619013562799 26:0.002050163224339485 27:0.0023200607392936945 28:0.0023104934953153133 29:0.002669265726581216 30:0.0032916413620114326 31:0.004930664319545031 32:0.004038139712065458 33:0.0 34:1.2588501704158261E-5 35:0.0015884172171354294 36:0.0029988328460603952 37:0.005332992412149906 38:0.004810821730643511 39:0.004615699872374535 40:0.0048523638397455215 41:0.006345863454043865 42:0.0057511827908456326 43:0.006048774812370539 44:0.006456642411649227 45:0.006203613709658384 46:0.007185264490544796 47:0.007095634937286377 48:0.0065774922259151936 49:0.007061142474412918 50:0.04109188914299011 51:0.07981286197900772 52:0.059029750525951385 53:0.04083332046866417 54:0.010746551677584648 55:0.0039736866019666195 56:0.0035957794170826674 57:0.002590461866930127 58:0.002357322722673416 59:0.0024975587148219347 60:4.8641968169249594E-4 61:3.675842526718043E-5 62:8.056641490838956E-6 63:2.014160372709739E-6 64:2.517700465887174E-7 65:0.029883593320846558 66:0.007481598295271397 67:0.01847362518310547 68:0.016907868906855583 69:0.012895409017801285 70:0.00887665618211031 71:0.007160591427236795 72:0.006484589073807001 73:0.005775604397058487 74:0.004264480900019407 75:0.003932899795472622 76:0.02570093609392643 77:0.08809711039066315 78:0.0699598416686058 79:0.020935432985424995 80:0.0015433502849191427 81:3.315811336506158E-4 82:2.754364104475826E-4 83:2.2558594355359674E-4 84:1.9487000827211887E-4 85:1.4653016114607453E-4 86:1.2739562953356653E-4 87:9.491730452282354E-5 88:9.038544521899894E-5 89:8.18252592580393E-5 90:4.103851460968144E-5 91:1.5106201317394152E-5 92:1.7623901840124745E-6 93:0.0 94:0.0 95:0.0 96:0.0 
-100.0 1:3.4483651688788086E-5 2:5.474724093801342E-5 3:5.97953621763736E-4 4:0.0035176880192011595 5:0.005504585802555084 6:0.006977784913033247 7:0.009174428880214691 8:0.01146350335329771 9:0.009534907527267933 10:0.011772789992392063 11:0.011236337944865227 12:0.012711314484477043 13:0.015560658648610115 14:0.02234647423028946 15:0.026367194950580597 16:0.02548377402126789 17:0.024570491164922714 18:0.02030624821782112 19:0.014003206975758076 20:0.011391691863536835 21:0.008812173269689083 22:0.006524164695292711 23:0.00527599873021245 24:0.005154772661626339 25:0.005614791996777058 26:0.005764813162386417 27:0.005103935953229666 28:0.0046599144116044044 29:0.004531578626483679 30:0.006774437613785267 31:0.015351268462836742 32:0.013821900822222233 33:0.0 34:0.0 35:7.607733277836815E-5 36:0.0016200206009671092 37:0.005317592527717352 38:0.007770553231239319 39:0.009922048076987267 40:0.009558726102113724 41:0.009949066676199436 42:0.012689271941781044 43:0.014061863534152508 44:0.01377639640122652 45:0.015701081603765488 46:0.01929449290037155 47:0.01874453015625477 48:0.020165469497442245 49:0.022647228091955185 50:0.027458585798740387 51:0.025143560022115707 52:0.022160544991493225 53:0.019186418503522873 54:0.013708140701055527 55:0.011264067143201828 56:0.008529548533260822 57:0.00585866579785943 58:0.0032283097971230745 59:0.00249384343624115 60:0.0025379257276654243 61:0.003569946624338627 62:0.002353775780647993 63:7.006935775279999E-4 64:5.115667590871453E-4 65:6.0435268096625805E-6 66:6.470128573710099E-5 67:0.0011287174420431256 68:0.0067836809903383255 69:0.0581529475748539 70:0.05884759500622749 71:0.030648501589894295 72:0.02251320146024227 73:0.011644808575510979 74:0.010406596586108208 75:0.010168410837650299 76:0.010101932100951672 77:0.011265845037996769 78:0.010771696455776691 79:0.011176968924701214 80:0.011152795515954494 81:0.011160971596837044 82:0.011350098066031933 83:0.008966105058789253 84:0.00738199008628726 85:0.006515277083963156 86:0.005639676935970783 87:0.003792135277763009 88:0.002093193121254444 89:0.001561362762004137 90:0.0012630970450118184 91:0.0010448191314935684 92:0.001120540895499289 93:0.001044463599100709 94:0.0010835687862709165 95:7.102921372279525E-4 96:4.3797792750410736E-4 
-94.01823548158303 1:0.0 2:7.006082159932703E-5 3:7.164283306337893E-4 4:0.002978714881464839 5:0.004386711400002241 6:0.005365302786231041 7:0.005733686964958906 8:0.0058579882606863976 9:0.00576758710667491 10:0.015243877656757832 11:0.015576101839542389 12:0.012488906271755695 13:0.01302227284759283 14:0.013496877625584602 15:0.011458334513008595 16:0.012421105057001114 17:0.015962567180395126 18:0.02108604647219181 19:0.028444692492485046 20:0.04291112348437309 21:0.04546947032213211 22:0.04076409712433815 23:0.005932569038122892 24:5.152859957888722E-4 25:4.181048716418445E-4 26:4.0680475649423897E-4 27:4.203649004921317E-4 28:4.384451312944293E-4 29:4.271449870429933E-4 30:5.559664568863809E-4 31:6.169871776364744E-4 32:0.0010463922517374158 33:0.0 34:4.520052607404068E-5 35:0.0012497944990172982 36:0.005631985608488321 37:0.007143943104892969 38:0.007336045615375042 39:0.006676118355244398 40:0.005744987167418003 41:0.0064568957313895226 42:0.014839332550764084 43:0.011826717294752598 44:0.010032257065176964 45:0.010547542944550514 46:0.011361151933670044 47:0.011205210350453854 48:0.010486522689461708 49:0.011467373929917812 50:0.013472017832100391 51:0.020130055025219917 52:0.032336458563804626 53:0.05768491327762604 54:0.06287393718957901 55:0.00790331233292818 56:5.085059092380106E-4 57:4.113247850909829E-4 58:3.209237474948168E-4 59:3.299638337921351E-4 60:4.0680475649423897E-4 61:4.6330541954375803E-4 62:4.8138562124222517E-4 63:4.7912559239193797E-4 64:1.4690171519760042E-4 65:7.006082159932703E-5 66:8.520299452356994E-4 67:0.005152860190719366 68:0.009887616150081158 69:0.00912372674793005 70:0.0073134456761181355 71:0.005887368693947792 72:0.008524819277226925 73:0.010909147560596466 74:0.009062705561518669 75:0.007388025987893343 76:0.006576676853001118 77:0.006418474949896336 78:0.007055802270770073 79:0.00848413910716772 80:0.010237920098006725 81:0.009799474850296974 82:0.011193910613656044 83:0.012638067826628685 84:0.017072239890694618 85:0.040587812662124634 86:0.08932754397392273 87:0.03358173370361328 88:7.684089941903949E-4 89:4.5426530414260924E-4 90:3.7064432399347425E-4 91:3.977646410930902E-4 92:4.045447276439518E-4 93:3.5482412204146385E-4 94:1.0396121797384694E-4 95:0.0 96:0.0 
-100.0 1:0.0194882582873106 2:0.02159935049712658 3:0.0243558119982481 4:0.024883270263671875 5:0.021968193352222443 6:0.01996746100485325 7:0.020164262503385544 8:0.01951133832335472 9:0.01712413877248764 10:0.014362640678882599 11:0.012764740735292435 12:0.011145859025418758 13:0.010660362429916859 14:0.009367523714900017 15:0.007939987815916538 16:0.006865348666906357 17:0.005949325859546661 18:0.0051251985132694244 19:0.00493888882920146 20:0.00476139085367322 21:0.004333801567554474 22:0.004404297098517418 23:0.005189400166273117 24:0.005555725656449795 25:0.004914131481200457 26:0.004275474697351456 27:0.0035348511300981045 28:0.002361183287575841 29:0.0020007325801998377 30:0.0021883011795580387 31:0.002107315231114626 32:0.0061914450488984585 33:0.012432822957634926 34:0.013909035362303257 35:0.007779274135828018 36:0.008949585258960724 37:0.011086273938417435 38:0.015110397711396217 39:0.015567360445857048 40:0.019834863021969795 41:0.020804595202207565 42:0.01833934895694256 43:0.017623063176870346 44:0.015742341056466103 45:0.016394006088376045 46:0.014856530353426933 47:0.014312286861240864 48:0.012377854436635971 49:0.01174213457852602 50:0.01058525126427412 51:0.009698181413114071 52:0.007923622615635395 53:0.006910248193889856 54:0.006340828258544207 55:0.005519218742847443 56:0.005388717632740736 57:0.004850349389016628 58:0.004669494926929474 59:0.004417724907398224 60:0.003079147543758154 61:0.002838287502527237 62:0.002723312471061945 63:0.002746391575783491 64:0.005447464529424906 65:0.022980310022830963 66:0.022676507011055946 67:0.038956377655267715 68:0.036938440054655075 69:0.02684875577688217 70:0.02014537900686264 71:0.017441369593143463 72:0.015682755038142204 73:0.01337486319243908 74:0.011842422187328339 75:0.01136783603578806 76:0.00960922334343195 77:0.007832146249711514 78:0.0065208435989916325 79:0.0057009123265743256 80:0.004827690310776234 81:0.004211693070828915 82:0.0036791993770748377 83:0.0034169387072324753 84:0.0031488037202507257 85:0.0031269837636500597 86:0.0030136872082948685 87:0.002915496937930584 88:0.00311061879619956 89:0.0031647493597120047 90:0.003779907478019595 91:0.004306945949792862 92:0.0045083616860210896 93:0.004939308390021324 94:0.00436527281999588 95:0.0024728013668209314 96:0.0030934142414480448 
-78.17385743053373 1:4.938936854159692E-6 2:2.634099655551836E-5 3:1.8274066678714007E-4 4:3.9566372288390994E-4 5:0.0016194224590435624 6:0.033562272787094116 7:0.03661837801337242 8:0.0922812968492508 9:0.05179847404360771 10:0.022388750687241554 11:0.012305635958909988 12:0.0044730305671691895 13:0.003480304265394807 14:0.003067079931497574 15:0.003216345561668277 16:0.0034298175014555454 17:0.003561522113159299 18:0.003466036170721054 19:0.0035379251930862665 20:0.003455609316006303 21:0.0036131066735833883 22:0.004125658422708511 23:0.0048577189445495605 24:0.007520903833210468 25:0.008916427381336689 26:0.007980224676430225 27:0.003918223548680544 28:9.828484617173672E-4 29:8.302901987917721E-4 30:9.301664540544152E-4 31:0.0014059507520869374 32:0.00204691500402987 33:3.841395482595544E-6 34:8.231561514548957E-5 35:3.0621408950537443E-4 36:7.09560583345592E-4 37:9.598000906407833E-4 38:0.028930645436048508 39:0.041438229382038116 40:0.10377474874258041 41:0.06106007844209671 42:0.0062241582199931145 43:0.003940722905099392 44:0.004048830829560757 45:0.0046815634705126286 46:0.005154603626579046 47:0.006169829983264208 48:0.006101782433688641 49:0.00398681964725256 50:0.0041860234923660755 51:0.005028935614973307 52:0.005113446153700352 53:0.00768937636166811 54:0.0071104224771261215 55:0.005764837376773357 56:0.006223609670996666 57:0.0024458712432533503 58:0.0014246089849621058 59:0.0010492497822269797 60:0.0010009579127654433 61:0.0010377255966886878 62:0.00109095626976341 63:0.0014954004436731339 64:0.001764846732839942 65:0.010695542208850384 66:0.00472272140905261 67:0.004300716333091259 68:0.026455141603946686 69:0.05231596156954765 70:0.10800357908010483 71:0.05997350811958313 72:0.008048821240663528 73:0.003765665227547288 74:0.0030154953710734844 75:0.0027515366673469543 76:0.0026939157396554947 77:0.0027471466455608606 78:0.0031911020632833242 79:0.004739732947200537 80:0.006845366675406694 81:0.005645204801112413 82:0.003912186715751886 83:0.0043067531660199165 84:0.0030160441529005766 85:0.0015892402734607458 86:0.0013922314392402768 87:0.0012989405076950788 88:0.0010108357528224587 89:6.678540376015007E-4 90:5.580998840741813E-4 91:4.878572071902454E-4 92:4.944424727000296E-4 93:5.54258469492197E-4 94:5.372465820983052E-4 95:2.4639806360937655E-4 96:1.6463123756693676E-5 
-100.0 1:4.180000105407089E-4 2:7.333334069699049E-4 3:0.0018186667002737522 4:0.0037693334743380547 5:0.011674666777253151 6:0.015084667131304741 7:0.024713335558772087 8:0.027500001713633537 9:0.0224913340061903 10:0.01816466823220253 11:0.011242000386118889 12:0.013617999851703644 13:0.01881733350455761 14:0.02681799978017807 15:0.031159333884716034 16:0.03324200212955475 17:0.014732667244970798 18:0.010061333887279034 19:0.01272333413362503 20:0.008337999694049358 21:0.0061966669745743275 22:0.004165333695709705 23:0.0033733337186276913 24:0.0025226667057722807 25:0.0020606666803359985 26:0.0020166668109595776 27:0.0011440000962466002 28:7.040000637061894E-4 29:3.3733336022123694E-4 30:2.1266666590236127E-4 31:1.1000000085914508E-4 32:3.666666816570796E-5 33:3.666666816570796E-5 34:4.7666666796430945E-4 35:0.0012100000167265534 36:0.002728000283241272 37:0.004451333545148373 38:0.005800667218863964 39:0.007876000367105007 40:0.008462666533887386 41:0.00801533367484808 42:0.010193333961069584 43:0.009885333478450775 44:0.011242000386118889 45:0.017585333436727524 46:0.026158001273870468 47:0.02760266698896885 48:0.023518001660704613 49:0.014710667543113232 50:0.012239334173500538 51:0.010853334330022335 52:0.018113333731889725 53:0.022014668211340904 54:0.02875400148332119 55:0.0227553341537714 56:0.012048667296767235 57:0.01206333376467228 58:0.007707333192229271 59:0.0018846667371690273 60:9.01999999769032E-4 61:3.9600004674866796E-4 62:2.1266666590236127E-4 63:6.600000051548705E-5 64:3.666666816570796E-5 65:0.0017160000279545784 66:0.0022440000902861357 67:0.029003335162997246 68:0.041323333978652954 69:0.02806466817855835 70:0.02426600083708763 71:0.023789335042238235 72:0.03619733452796936 73:0.024874666705727577 74:0.0252119991928339 75:0.025072667747735977 76:0.014960000291466713 77:0.006570666562765837 78:0.003732666838914156 79:0.004070000257343054 80:0.005852000322192907 81:0.006226000376045704 82:0.005375333596020937 83:0.004407333675771952 84:0.004128666594624519 85:0.003747333539649844 86:0.0027719999197870493 87:0.0022806667257100344 88:0.0016353335231542587 89:0.0012246667174622416 90:6.673333118669689E-4 91:3.886666672769934E-4 92:1.1000000085914508E-4 93:5.8666668337536976E-5 94:1.4666667084384244E-5 95:7.333333542192122E-6 96:7.333333542192122E-6 
-96.35979909345265 1:7.82222268753685E-5 2:5.9888887335546315E-5 3:5.37777814315632E-5 4:5.13333325216081E-5 5:1.4422222739085555E-4 6:2.725555677898228E-4 7:4.424444632604718E-4 8:5.08444441948086E-4 9:6.526667275466025E-4 10:6.355555960908532E-4 11:0.0017221111338585615 12:0.010267889127135277 13:0.04300877824425697 14:0.0633392259478569 15:0.06626644730567932 16:0.060377780348062515 17:0.019639888778328896 18:0.006773556116968393 19:0.003163111163303256 20:0.002663222374394536 21:0.002666888991370797 22:0.0030372224282473326 23:0.00299566681496799 24:0.0027561113238334656 25:0.0029260001610964537 26:0.0016720000421628356 27:0.0012381111737340689 28:0.0013077778276056051 29:0.0015595556469634175 30:0.002384555758908391 31:0.0049573336727917194 32:0.02237766608595848 33:2.835555642377585E-4 34:2.4444443988613784E-4 35:1.808888919185847E-4 36:2.908889146056026E-4 37:5.561111611314118E-4 38:7.211111369542778E-4 39:8.726666565053165E-4 40:0.0010010000551119447 41:0.0023356666788458824 42:0.006765000522136688 43:0.018781889230012894 44:0.025513891130685806 45:0.029458001255989075 46:0.04039444401860237 47:0.03787177801132202 48:0.07899711281061172 49:0.047308556735515594 50:0.009165444411337376 51:0.003171666758134961 52:0.0021743334364145994 53:0.0021926667541265488 54:0.002085111103951931 55:0.0022378889843821526 56:0.0026986668817698956 57:0.002317333361133933 58:0.0016683334251865745 59:0.0016475556185469031 60:0.0017844445537775755 61:0.002083888975903392 62:0.0018981111934408545 63:0.0020215557888150215 64:0.0012760000536218286 65:0.003056777874007821 66:0.0017624445026740432 67:0.0015632223803550005 68:0.001874889014288783 69:0.002432222245261073 70:0.0038683332968503237 71:0.00450755562633276 72:0.005007444880902767 73:0.008710778318345547 74:0.015870556235313416 75:0.018356556072831154 76:0.01993933506309986 77:0.0193612240254879 78:0.018982334062457085 79:0.02308044396340847 80:0.02311466634273529 81:0.038100335747003555 82:0.058832891285419464 83:0.04138444736599922 84:0.004557666834443808 85:0.0018235556781291962 86:0.0016475556185469031 87:0.0014434445183724165 88:0.0013248889008536935 89:0.0018773333868011832 90:0.0015962222823873162 91:0.0013224445283412933 92:9.900000877678394E-4 93:0.001195333432406187 94:0.0010596667416393757 95:0.0012124445056542754 96:1.4300001203082502E-4 
-100.0 1:2.4838672834448516E-4 2:2.6996422093361616E-4 3:9.793253848329186E-4 4:0.0046896785497665405 5:0.005214404314756393 6:0.004332178272306919 7:0.0035845660604536533 8:0.0042279683984816074 9:0.003619874594733119 10:0.003517626551911235 11:0.003587998915463686 12:0.0031976415775716305 13:0.002771975938230753 14:0.0029678901191800833 15:0.0034256770741194487 16:0.011987049132585526 17:0.06162957474589348 18:0.05333276838064194 19:0.03107212483882904 20:0.020563868805766106 21:0.028300883248448372 22:0.02119746245443821 23:0.017889728769659996 24:0.01189804170280695 25:0.008604282513260841 26:0.0058440761640667915 27:0.004852000158280134 28:0.002946312539279461 29:0.0015099361771717668 30:8.694760617800057E-4 31:3.082152979914099E-4 32:5.590540240518749E-4 33:4.928502603434026E-4 34:0.0014312273124232888 35:0.006204518489539623 36:0.006426423788070679 37:0.004420694895088673 38:0.0035281700547784567 39:0.003353588515892625 40:0.0034604952670633793 41:0.0035497478675097227 42:0.003953345585614443 43:0.004507005214691162 44:0.004123513586819172 45:0.003637774148955941 46:0.0037785186432302 47:0.004438594449311495 48:0.004982691258192062 49:0.004996667616069317 50:0.016215262934565544 51:0.057852525264024734 52:0.07119135558605194 53:0.03273481875658035 54:0.024097925052046776 55:0.023674221709370613 56:0.018562553450465202 57:0.009746174328029156 58:0.005097444634884596 59:0.0020182339940220118 60:7.870892295613885E-4 61:4.930954310111701E-4 62:2.103808510582894E-4 63:2.8443098926800303E-5 64:4.658783382183174E-6 65:0.0031383035238832235 66:0.007944696582853794 67:0.004570511635392904 68:0.003498255740851164 69:0.003444557311013341 70:0.003641697345301509 71:0.00397369684651494 72:0.0042740656062960625 73:0.004281176719814539 74:0.004411132540553808 75:0.010935145430266857 76:0.02029316872358322 77:0.046349745243787766 78:0.03828955814242363 79:0.015762625262141228 80:0.016997449100017548 81:0.017364267259836197 82:0.015959519892930984 83:0.01171561423689127 84:0.012488972395658493 85:0.020657779648900032 86:0.015250894241034985 87:0.013183130882680416 88:0.012151578441262245 89:0.008343145251274109 90:0.00491918483749032 91:0.0030899993143975735 92:0.0017124706646427512 93:8.805100223980844E-4 94:3.962417831644416E-4 95:6.20353821432218E-5 96:1.8880331481341273E-5 
-100.0 1:0.008644625544548035 2:0.004989875014871359 3:0.005518563091754913 4:0.006798000540584326 5:0.008126250468194485 6:0.009317000396549702 7:0.00940637569874525 8:0.011470937170088291 9:0.01298412587493658 10:0.01500606257468462 11:0.017747124657034874 12:0.018042750656604767 13:0.017769813537597656 14:0.01863468810915947 15:0.019832313060760498 16:0.01606481336057186 17:0.014295876026153564 18:0.012003750540316105 19:0.01092231273651123 20:0.01123649999499321 21:0.0090103754773736 22:0.006386875174939632 23:0.005328812636435032 24:0.0042831250466406345 25:0.0032401878852397203 26:0.0030690000858157873 27:0.003278687596321106 28:0.00402256241068244 29:0.003491812851279974 30:0.0029205000028014183 31:0.003946250304579735 32:0.03221006318926811 33:0.00846793781965971 34:0.004636500496417284 35:0.00532331271097064 36:0.006525750271975994 37:0.00757349980995059 38:0.008126937784254551 39:0.007769437972456217 40:0.010449999943375587 41:0.011497750878334045 42:0.012419000267982483 43:0.014896063134074211 44:0.017825501039624214 45:0.018638813868165016 46:0.01615418866276741 47:0.018579687923192978 48:0.021273313090205193 49:0.020930249243974686 50:0.017604125663638115 51:0.01640443690121174 52:0.015571875497698784 53:0.012951125390827656 54:0.010887250304222107 55:0.008733312599360943 56:0.006302999798208475 57:0.004576000384986401 58:0.003166625276207924 59:0.0027933125384151936 60:0.00248187524266541 61:0.0027768125291913748 62:0.0028854375705122948 63:0.0024227499961853027 64:0.009354124777019024 65:0.06576212495565414 66:0.015714189037680626 67:0.010806125588715076 68:0.010300813242793083 69:0.009616062976419926 70:0.010117937810719013 71:0.010544874705374241 72:0.010500187985599041 73:0.010555875487625599 74:0.011091438122093678 75:0.01351693831384182 76:0.012828750535845757 77:0.01258812565356493 78:0.013376687653362751 79:0.014854812994599342 80:0.0162772499024868 81:0.015669500455260277 82:0.012982750311493874 83:0.012134375050663948 84:0.012188000604510307 85:0.00994537491351366 86:0.007510938216000795 87:0.004092000424861908 88:0.0025245000142604113 89:0.0012966250069439411 90:8.408125722780824E-4 91:6.091250106692314E-4 92:4.2831251630559564E-4 93:2.839375229086727E-4 94:2.8462501359172165E-4 95:2.9700002050958574E-4 96:4.5993749517947435E-4 
